copy data: 
{"weights" : [np.array([[22.846323476953373, -13.258330286684298, 13.897532341627027, 8.99339915082112, 16.4896790662132, 21.10723328777341, 5.27928207668921, 17.910672724329487, 7.235095584159601, 26.50132149864247, 1.8359148029951022, 19.32942328799315, 65.9278030493042, 152.1722264467977], [6.196970047429117, 6.211483906706009, -7.117743044928503, 7.2759845279085855, 1.1539872690851918, 1.296303643860738, 1.352034172474756, -9.73253693900854, -4.815369708232, 9.434415333665354, -4.361078557574511, 2.277318824004382, 6.529655471336067, 8.104205369502422], [-3.7270519271323574, -4.932225440382987, -5.807311876179301, -0.9963546785430224, -6.90393906804797, -6.04107267084837, -6.566643354985339, 0.25252549460739804, -12.699289275028422, -6.970265666618653, -23.525487919513544, -2.0571884395957465, -25.840467484894994, -71.3309302470343], [10.092353963928355, -5.617357872675581, -0.47092919848536274, 3.040845826099657, -2.511677672092395, 2.7529471721778105, 7.829402380767307, 3.43935847525741, 4.343960002434178, -11.303399453640331, -6.21322356598248, 7.654934933809273, -25.084768942538503, -27.026266683550524], [-48.42336922905641, -55.751624978665525, -47.40961506017873, -46.6468698115334, -61.49072150473398, -59.304450084241864, -28.257066295710274, -46.14356420831304, -69.26073948184646, -49.66310239509102, -48.56026997425925, -55.531205014017154, -255.12181100239434, -605.4000518760646], [77.08112171147685, 21.77991107010294, 45.36627586887573, 56.35757845763309, 37.74572081160621, 63.21104255154313, 20.68091603706364, 46.30891476210384, 43.75704465951538, 46.081426235131836, 68.23675806900845, 73.30494221055446, 282.83849096244074, 581.7652941024388], [-34.780832247362675, -29.837115983464408, -50.13084504861749, -47.50617786465219, -44.50809851217826, -48.44770171728465, -23.040564607154693, -41.20510408501886, -50.907062674171, -49.54188461352669, -36.69311825383233, -58.36550739669436, -263.4031471063301, -541.5854435793864]]),np.array([[-660.1508795961535, -667.9517290869574, 3.5261050046194, -2.5187018461069965, -1.626118123585301, -661.6808264502954, -2.8309588393671437], [6.614156963651883, -3.5418031776114063, 4.796766811808717, -0.6907055840342364, -3.950829575830838, -1.920309825706907, -2.4717210702531447], [8260.720889400363, 8253.701326268481, -5.804209184261417, -3.163610429788154, -5.214001926567406, 8256.200936442829, 10.46736995059735], [1031649.3086342277, 1031658.4275453512, -8.625009594780016, 13.386906461173144, 7.1077790345991385, 1031647.3419095499, 34.12096553229631], [-28.02706351426686, -399.69530253174224, 0.475640777198743, -9.879062829274538, -321.1099620700194, -229.19783869283927, -10.981318429182604], [5.587748018550308, -70.6151978365664, 13.28347149967123, 3.4982471989421464, -45.50120413875792, -3.9708601710302753, 7.788232159825624]]),np.array([[-7.2186162412066475, 8.30620315456527, 279142.28238137125, 2589.383229797886, 2087.9540830119518, 2113.912447232473], [-653.1563355129737, -1.127192387496005, 51.98037756033408, -762.0605226581926, -8.365322859654698, 1.447029247237544], [9.022996948736225, -2.0133877583426947, -423595.20598965057, -424529.7278761311, 5.3149710019437775, 5.313974855563778]])],"biases" : [ np.array([-4.133000000000001, 8.257, -4.426, 0.1429999999999998, -6.371, 9.155000000000001, 2.053]), np.array([-1.791, 1.912, 0.5440000000000005, -0.9200000000000004, 8.487, -9.907]), np.array([-4.067, -5.695, 1.09])]}
________________
